svm_type c_svc
kernel_type rbf
gamma 0.0769231
nr_class 2
total_sv 91
rho 0.63611
label 1 -1
nr_sv 44 47
SV
4 1:0.166667 2:1 3:-0.333333 4:-0.433962 5:-0.383562 6:-1 7:-1 8:0.0687023 9:-1 10:-0.903226 11:-1 12:-1 13:1 
4 1:0.333333 2:1 3:-1 4:-0.245283 5:-0.506849 6:-1 7:-1 8:0.129771 9:-1 10:-0.16129 12:0.333333 13:-1 
0.06691877193998118 2:1 3:1 4:-0.132075 5:-0.648402 6:1 7:1 8:0.282443 9:1 11:1 12:-1 13:1 
2.990409988185426 1:0.208333 2:1 3:0.333333 4:-0.660377 5:-0.525114 6:-1 7:1 8:0.435115 9:-1 10:-0.193548 12:-0.333333 13:1 
4 1:0.25 2:1 3:-1 4:0.245283 5:-0.328767 6:-1 7:1 8:-0.175573 9:-1 10:-1 11:-1 12:-1 13:-1 
4 1:-0.541667 2:1 3:1 4:0.0943396 5:-0.557078 6:-1 7:-1 8:0.679389 9:-1 10:-1 11:-1 12:-1 13:1 
4 1:0.25 2:1 3:0.333333 4:-0.396226 5:-0.579909 6:1 7:-1 8:-0.0381679 9:-1 10:-0.290323 12:-0.333333 13:0.5 
2.748239725340395 1:-0.166667 2:1 3:0.333333 4:-0.54717 5:-0.894977 6:-1 7:1 8:-0.160305 9:-1 10:-0.741935 11:-1 12:1 13:-1 
4 1:-0.375 2:1 3:1 4:-0.698113 5:-0.675799 6:-1 7:1 8:0.618321 9:-1 10:-1 11:-1 12:-0.333333 13:-1 
0.243241973720495 1:-0.458333 2:1 3:1 4:-0.207547 5:-0.136986 6:-1 7:-1 8:-0.175573 9:1 10:-0.419355 12:-1 13:0.5 
4 1:0.25 2:-1 3:1 4:0.509434 5:-0.438356 6:-1 7:-1 8:0.0992366 9:1 10:-1 12:-1 13:-1 
3.144674539407658 1:0.375 2:1 3:-0.333333 4:-0.509434 5:-0.292237 6:-1 7:1 8:-0.51145 9:-1 10:-0.548387 12:-0.333333 13:1 
2.280867852122967 1:-0.0833333 2:-1 3:1 4:-0.320755 5:-0.182648 6:-1 7:-1 8:0.0839695 9:1 10:-0.612903 12:-1 13:1 
4 1:0.208333 2:-1 3:-0.333333 4:-0.207547 5:-0.118721 6:1 7:1 8:0.236641 9:-1 10:-1 11:-1 12:0.333333 13:-1 
4 1:-0.25 2:1 3:0.333333 4:-0.735849 5:-0.465753 6:-1 7:-1 8:0.236641 9:-1 10:-1 11:-1 12:-1 13:-1 
3.505812541580488 1:-0.75 2:1 3:1 4:-0.509434 5:-0.671233 6:-1 7:-1 8:-0.0992366 9:1 10:-0.483871 12:-1 13:1 
3.366979215321156 1:0.208333 2:1 3:1 4:0.0566038 5:-0.342466 6:-1 7:1 8:-0.389313 9:1 10:-0.741935 11:-1 12:-1 13:1 
0.0790834160327578 1:-0.125 2:1 3:1 4:0.0566038 5:-0.465753 6:-1 7:1 8:-0.129771 9:-1 10:-0.16129 12:-1 13:1 
4 1:0.333333 2:-1 3:1 4:-0.320755 5:-0.0684932 6:-1 7:1 8:0.496183 9:-1 10:-1 11:-1 12:-1 13:-1 
1.945617019622571 1:0.0416667 2:1 3:1 4:-0.698113 5:-0.634703 6:-1 7:1 8:-0.435115 9:1 10:-1 12:-0.333333 13:-1 
4 1:-0.25 2:1 3:1 4:-0.698113 5:-0.319635 6:-1 7:1 8:-0.282443 9:1 10:-0.677419 12:-0.333333 13:-1 
4 1:0.208333 2:1 3:1 4:-0.886792 5:-0.506849 6:-1 7:-1 8:0.29771 9:-1 10:-0.967742 11:-1 12:-0.333333 13:1 
4 1:0.583333 2:1 3:1 4:-0.509434 5:-0.493151 6:-1 7:-1 8:-1 9:-1 10:-0.677419 12:-1 13:-1 
4 1:-0.208333 2:1 3:1 4:-0.433962 5:-0.324201 6:-1 7:1 8:0.450382 9:-1 10:-0.83871 12:-1 13:1 
0.3985291071304158 1:0.291667 2:-1 3:1 4:0.0566038 5:-0.39726 6:-1 7:1 8:0.312977 9:-1 10:-0.16129 12:0.333333 13:1 
4 1:0.25 2:1 3:1 4:-0.132075 5:-0.767123 6:-1 7:-1 8:0.389313 9:1 10:-1 11:-1 12:-0.333333 13:1 
3.400123380946302 1:0.0833333 2:-1 3:1 4:0.622642 5:-0.0821918 6:-1 8:-0.29771 9:1 10:0.0967742 12:-1 13:-1 
4 1:0.291667 2:-1 3:1 4:0.207547 5:-0.182648 6:-1 7:1 8:0.374046 9:-1 10:-1 11:-1 12:-1 13:-1 
1.598617297900083 1:0.291667 2:1 3:1 4:-0.566038 5:-0.525114 6:1 7:-1 8:0.358779 9:1 10:-0.548387 11:-1 12:0.333333 13:1 
2.781122717479778 1:0.416667 2:-1 3:1 4:-0.735849 5:-0.347032 6:-1 7:-1 8:0.496183 9:1 10:-0.419355 12:0.333333 13:-1 
4 1:0.541667 2:1 3:1 4:-0.660377 5:-0.607306 6:-1 7:1 8:-0.0687023 9:1 10:-0.967742 11:-1 12:-0.333333 13:-1 
2.977812937570457 1:0.125 2:1 3:1 4:-0.415094 5:-0.438356 6:1 7:1 8:0.114504 9:1 10:-0.612903 12:-0.333333 13:-1 
4 1:-0.125 2:1 3:0.333333 4:-0.132075 5:-0.511416 6:-1 7:-1 8:0.40458 9:-1 10:-0.806452 12:-0.333333 13:1 
4 1:0.0416667 2:1 3:-0.333333 4:0.849057 5:-0.283105 6:-1 7:1 8:0.89313 9:-1 10:-1 11:-1 12:-0.333333 13:1 
4 1:-0.0416667 2:1 3:1 4:-0.660377 5:-0.525114 6:-1 7:-1 8:0.358779 9:-1 10:-1 11:-1 12:-0.333333 13:-1 
4 1:-0.625 2:1 3:-1 4:-0.509434 5:-0.520548 6:-1 7:-1 8:0.694656 9:1 10:0.225806 12:-1 13:1 
4 1:0.375 2:-1 3:1 4:0.0566038 5:-0.461187 6:-1 7:-1 8:0.267176 9:1 10:-0.548387 12:-1 13:-1 
4 1:0.5 2:1 3:-1 4:-0.169811 5:-0.287671 6:1 7:1 8:0.572519 9:-1 10:-0.548387 12:-0.333333 13:-1 
2.289958872407822 1:0.375 2:-1 3:1 4:-0.169811 5:-0.232877 6:1 7:-1 8:-0.465649 9:-1 10:-0.387097 12:1 13:-1 
4 1:-0.291667 2:1 3:0.333333 4:0.0566038 5:-0.520548 6:-1 7:-1 8:0.160305 9:-1 10:0.16129 12:-1 13:-1 
4 1:0.583333 2:1 3:1 4:-0.415094 5:-0.415525 6:1 7:-1 8:0.40458 9:-1 10:-0.935484 12:0.333333 13:1 
3.734007128032526 1:-0.5 2:1 3:1 4:-0.698113 5:-0.789954 6:-1 7:1 8:0.328244 9:-1 10:-1 11:-1 12:-1 13:1 
0.8456456896639732 1:0.708333 2:1 3:1 4:-0.0377358 5:-0.780822 6:-1 7:-1 8:-0.175573 9:1 10:-0.16129 11:1 12:-1 13:1 
2.06683407223547 1:-0.75 2:1 3:1 4:-0.396226 5:-0.287671 6:-1 7:1 8:0.29771 9:1 10:-1 11:-1 12:-1 13:1 
-1.966900578343849 1:0.583333 2:-1 3:0.333333 4:-0.603774 5:1 6:-1 7:1 8:0.358779 9:-1 10:-0.483871 12:-1 13:1 
-4 1:0.458333 2:1 3:1 4:-0.358491 5:-0.374429 6:-1 7:-1 8:-0.480916 9:1 10:-0.935484 12:-0.333333 13:1 
-0.08185213979864622 1:0.875 2:-1 3:-0.333333 4:-0.509434 5:-0.347032 6:-1 7:1 8:-0.236641 9:1 10:-0.935484 11:-1 12:-0.333333 13:-1 
-4 1:0.5 2:1 3:1 4:-0.509434 5:-0.767123 6:-1 7:-1 8:0.0534351 9:-1 10:-0.870968 11:-1 12:-1 13:1 
-4 1:0.25 2:1 3:1 4:-0.226415 5:-0.506849 6:-1 7:-1 8:0.374046 9:-1 10:-0.83871 12:-1 13:1 
-4 2:1 3:1 4:-0.0943396 5:-0.543379 6:-1 7:1 8:-0.389313 9:1 10:-1 11:-1 12:-1 13:1 
-4 1:0.166667 2:-1 3:1 4:-0.358491 5:-0.191781 6:-1 7:1 8:0.343511 9:-1 10:-1 11:-1 12:-0.333333 13:-1 
-0.7509026034421424 1:0.75 2:-1 3:1 4:-0.660377 5:-0.894977 6:-1 7:-1 8:-0.175573 9:-1 10:-0.483871 12:-1 13:-1 
-3.208620622555917 1:-0.541667 2:1 3:-1 4:-0.132075 5:-0.666667 6:-1 7:-1 8:0.633588 9:1 10:-0.548387 11:-1 12:-1 13:1 
-1.429280306925322 1:-0.416667 2:1 3:1 4:-0.603774 5:-0.191781 6:-1 7:-1 8:0.679389 9:-1 10:-0.612903 12:-1 13:-1 
-2.932502634625263 1:-0.25 2:1 3:1 4:-0.660377 5:-0.643836 6:-1 7:-1 8:0.0992366 9:-1 10:-0.967742 11:-1 12:-1 13:-1 
-0.8529425632929423 1:0.0416667 2:-1 3:-0.333333 4:-0.283019 5:-0.260274 6:1 7:1 8:0.343511 9:1 10:-1 11:-1 12:-0.333333 13:-1 
-2.946060325816148 1:-0.291667 2:-1 3:1 4:-0.169811 5:-0.465753 6:-1 7:1 8:0.236641 9:1 10:-1 12:-1 13:-1 
-1.470698261712918 1:0.75 2:-1 3:0.333333 4:-0.698113 5:-0.365297 6:1 7:1 8:-0.0992366 9:-1 10:-1 11:-1 12:-0.333333 13:-1 
-4 1:0.541667 2:1 3:1 4:0.245283 5:-0.534247 6:-1 7:1 8:0.0229008 9:-1 10:-0.258065 11:-1 12:-1 13:0.5 
-2.30409144476354 1:-0.208333 2:1 3:1 4:-0.471698 5:-0.561644 6:-1 7:1 8:0.755725 9:-1 10:-1 11:-1 12:-1 13:-1 
-1.716467804227159 1:0.5 2:-1 3:0.333333 4:-0.132075 5:0.328767 6:1 7:1 8:0.312977 9:-1 10:-0.741935 11:-1 12:-0.333333 13:-1 
-3.725385891774266 1:0.166667 2:1 3:0.333333 4:0.0566038 5:-1 6:1 7:-1 8:0.557252 9:-1 10:-0.935484 11:-1 12:-0.333333 13:1 
-2.409299182915148 1:-0.0833333 2:1 3:1 4:-0.132075 5:-0.383562 6:-1 7:1 8:0.755725 9:1 10:-1 11:-1 12:-1 13:-1 
-1.902420442093078 1:0.166667 2:-1 3:1 4:-0.509434 5:0.0410959 6:-1 7:-1 8:0.40458 9:1 10:-0.806452 11:-1 12:-1 13:-1 
-2.198055571818447 1:0.583333 2:-1 3:1 4:-0.773585 5:-0.557078 6:-1 7:-1 8:0.0839695 9:-1 10:-0.903226 11:-1 12:0.333333 13:-1 
-4 1:-0.333333 2:1 3:1 4:-0.811321 5:-0.625571 6:-1 7:1 8:0.175573 9:1 10:-0.0322581 12:-1 13:-1 
-4 1:0.166667 2:1 3:1 4:-0.698113 5:-0.657534 6:-1 7:-1 8:-0.160305 9:1 10:-0.516129 12:-1 13:0.5 
-4 1:-0.458333 2:1 3:-1 4:0.0188679 5:-0.461187 6:-1 7:1 8:0.633588 9:-1 10:-0.741935 11:-1 12:0.333333 13:-1 
-2.275151351306075 1:0.25 2:1 3:-1 4:0.584906 5:-0.342466 6:-1 7:1 8:0.129771 9:-1 10:0.354839 11:1 12:-1 13:1 
-4 1:0.541667 2:1 3:1 4:-0.509434 5:-0.196347 6:-1 7:1 8:0.221374 9:-1 10:-0.870968 12:-1 13:-1 
-0.1398194450065977 1:0.458333 2:-1 3:0.333333 4:-0.132075 5:-0.146119 6:-1 7:-1 8:-0.0534351 9:-1 10:-0.935484 11:-1 12:-1 13:1 
-4 1:-0.0833333 2:1 3:0.333333 4:-0.886792 5:-0.561644 6:-1 7:-1 8:0.0992366 9:1 10:-0.612903 12:-1 13:-1 
-2.152444290757896 1:0.541667 2:-1 3:-1 4:0.0566038 5:-0.543379 6:-1 7:-1 8:-0.343511 9:-1 10:-0.16129 11:1 12:-1 13:-1 
-4 1:0.0416667 2:1 3:0.333333 4:-0.415094 5:-0.328767 6:-1 7:1 8:0.236641 9:-1 10:-0.83871 11:1 12:-0.333333 13:-1 
-4 1:-0.0416667 2:1 3:-0.333333 4:-0.245283 5:-0.657534 6:-1 7:-1 8:0.328244 9:-1 10:-0.741935 11:-1 12:-0.333333 13:-1 
-4 1:0.0416667 2:1 3:0.333333 4:0.0566038 5:-0.515982 6:-1 7:1 8:0.435115 9:-1 10:-0.483871 11:-1 12:-1 13:1 
-4 1:0.166667 2:1 3:1 4:-0.283019 5:-0.630137 6:-1 7:-1 8:0.480916 9:1 10:-1 11:-1 12:-1 13:1 
-2.053898359579461 1:-0.0833333 2:1 3:-1 4:-0.415094 5:-0.60274 6:-1 7:1 8:-0.175573 9:1 10:-0.548387 11:-1 12:-0.333333 13:-1 
-4 1:0.458333 2:-1 3:1 4:-0.320755 5:-0.191781 6:-1 7:-1 8:-0.221374 9:-1 10:-0.354839 12:0.333333 13:-1 
-4 1:0.125 2:1 3:-1 4:-0.509434 5:-0.694064 6:-1 7:1 8:0.389313 9:-1 10:-0.387097 12:-1 13:1 
-4 1:-0.416667 2:1 3:1 4:-0.698113 5:-0.611872 6:-1 7:-1 8:0.374046 9:-1 10:-1 11:-1 12:-1 13:1 
-4 1:0.458333 2:-1 3:1 4:0.622642 5:-0.0913242 6:-1 7:-1 8:0.267176 9:1 10:-1 11:-1 12:-1 13:-1 
-4 1:-0.333333 2:-1 3:1 4:-0.169811 5:-0.497717 6:-1 7:1 8:0.236641 9:1 10:-0.935484 12:-1 13:-1 
-3.697683579226051 1:0.666667 2:1 3:-1 4:0.245283 5:-0.506849 6:1 7:1 8:-0.0839695 9:-1 10:-0.967742 12:-0.333333 13:-1 
-4 1:-0.458333 2:1 3:0.333333 4:-0.509434 5:-0.479452 6:1 7:-1 8:0.877863 9:-1 10:-0.741935 11:1 12:-1 13:1 
-4 2:1 3:0.333333 4:-0.320755 5:-0.452055 6:1 7:1 8:0.557252 9:-1 10:-1 11:-1 12:1 13:-1 
-4 1:-0.416667 2:1 3:0.333333 4:-0.320755 5:-0.136986 6:-1 7:-1 8:0.389313 9:-1 10:-0.387097 11:-1 12:-0.333333 13:-1 
-4 1:-0.0416667 2:1 3:1 4:-0.735849 5:-0.511416 6:1 7:-1 8:0.160305 9:-1 10:-0.967742 11:-1 12:1 13:1 
-0.3487582938410581 1:0.0416667 2:1 3:1 4:-0.132075 5:-0.484018 6:-1 7:-1 8:0.358779 9:-1 10:-0.612903 11:-1 12:-1 13:-1 
-3.509428294508478 1:0.0416667 2:1 3:-0.333333 4:-0.735849 5:-0.164384 6:-1 7:-1 8:0.29771 9:-1 10:-1 11:-1 12:-1 13:1 
-0.3918322583103204 1:-0.208333 2:1 3:0.333333 4:-0.433962 5:-0.410959 6:1 7:-1 8:0.587786 9:-1 10:-1 11:-1 12:0.333333 13:-1 
