svm_type c_svc
kernel_type rbf
gamma 1
nr_class 2
total_sv 1243
rho -0.269246
label 1 0
nr_sv 710 533
SV
0.496546642714446 0:138.39458 1:23.371467 
0.443625781273185 0:135.26304 1:24.27701 
0.4391112331807221 0:102.61919 1:12.591609 
0.4353068594099734 0:102.33544 1:13.157874 
1 0:136.10518 1:20.510438 
0.4119380759639692 0:164.17831 1:9.4714692 
0.5673655583095717 0:138.95837 1:10.973876 
1 0:161.95686 1:19.953828 
1 0:160.55717 1:21.558709 
0.7702145971884581 0:161.6494 1:21.951811 
1 0:93.326683 1:14.296022 
1 0:95.491706 1:17.582225 
0.7304024145342062 0:173.71071 1:36.252601 
0.3012388534319769 0:122.12822 1:31.577142 
0.3422298550621178 0:121.35685 1:32.231068 
0.4886949493161524 0:121.00376 1:28.019151 
0.2202895062088733 0:121.74088 1:28.812415 
1 0:123.21286 1:26.539345 
0.9193398828364182 0:121.15135 1:31.17589 
0.7145310987993142 0:150.00316 1:4.4075358 
0.4204414867638078 0:152.25899 1:4.261161 
0.7218525820230155 0:154.24745 1:4.2471994 
0.8816552522825204 0:152.2326 1:10.471445 
1 0:24.930951 1:4.0010026 
0.5572350427923261 0:58.656318 1:6.3398893 
0.5826815629019453 0:29.463142 1:2.4571332 
0.6676634073614068 0:42.17383 1:3.7098926 
0.7307657141466984 0:57.952482 1:2.2153461 
0.7308880973117637 0:93.075777 1:2.1728646 
0.7312172184962916 0:111.16885 1:8.7901291 
0.5208967248823823 0:119.24447 1:10.881949 
1 0:126.03221 1:11.346618 
1 0:122.28096 1:9.9200239 
0.7165894761571728 0:114.43026 1:6.526811 
0.7076256316221501 0:113.11076 1:8.0105447 
1 0:160.51365 1:16.248022 
0.2365616986200748 0:160.49481 1:16.159912 
0.6603768462781441 0:153.26082 1:12.440799 
0.6763852858306221 0:154.57566 1:11.243293 
0.266721737105196 0:153.00427 1:11.0574 
1 0:150.91804 1:10.925653 
0.8031201069500766 0:148.86617 1:10.508664 
0.5739771248036571 0:135.39865 1:23.356738 
0.5844449527673234 0:128.62105 1:21.140233 
0.2745922625040628 0:129.5847 1:21.532095 
0.5893080990865688 0:130.03482 1:22.49733 
0.694078722407216 0:127.91378 1:22.747863 
0.639399631665419 0:124.94924 1:23.055456 
0.6450623740336412 0:123.84427 1:23.917975 
0.4519848102423782 0:121.97679 1:25.333379 
0.4631051812601614 0:123.18429 1:27.359614 
0.7258087302663586 0:123.41798 1:27.952376 
0.7926492403169489 0:126.87897 1:28.59223 
0.02179071544608557 0:128.93087 1:29.612467 
0.2265918068427236 0:134.27881 1:31.762807 
0.7169031048571776 0:137.01172 1:33.410526 
0.6752787065409607 0:135.2089 1:33.899772 
0.4133363536501178 0:138.75376 1:35.705153 
0.7307242769588478 0:141.9491 1:36.656469 
0.5119976369322363 0:148.74642 1:16.887087 
0.8615811680195868 0:149.05303 1:18.042904 
0.7173118250160189 0:142.26138 1:16.55701 
0.9718968991368608 0:138.82322 1:15.46346 
0.5793150159202112 0:151.02599 1:28.32744 
0.3933798349152549 0:152.76653 1:29.078406 
0.4936597556140788 0:150.26721 1:27.399372 
0.694790047547887 0:122.22925 1:11.882044 
0.2193488601534065 0:131.36264 1:14.7907 
0.7313045256944074 0:178.07025 1:9.4191037 
0.7307330693552124 0:167.78319 1:8.9578049 
0.4144390648959819 0:164.2708 1:8.9659701 
0.5676620908415391 0:142.30369 1:9.1244683 
0.53340901679782 0:153.02771 1:9.5128971 
0.7308172035799734 0:162.23157 1:11.735265 
0.8326921297554406 0:157.8627 1:13.485561 
1 0:151.81569 1:14.731271 
0.7113117407848051 0:146.89573 1:16.466157 
0.5948878173495842 0:144.008 1:18.288584 
1 0:143.85195 1:23.515583 
0.7355064414833806 0:147.19087 1:27.45471 
0.4555979395326712 0:152.38905 1:29.615548 
0.7346380453984989 0:157.37564 1:31.472449 
0.4544274742131028 0:161.13195 1:24.530206 
1 0:158.65976 1:24.731482 
0.3764254855586187 0:152.49624 1:24.183054 
0.5320338203389263 0:153.25359 1:24.037065 
0.2604384141033929 0:159.61468 1:25.02035 
1 0:158.75749 1:25.799965 
1 0:155.24136 1:26.030263 
1 0:153.68255 1:26.022414 
0.350197164929928 0:152.14231 1:25.520786 
0.5336403127113819 0:150.76402 1:26.187703 
0.2503987375817969 0:152.07057 1:26.069125 
0.1046996624551778 0:159.44054 1:26.9061 
0.8800677831814177 0:156.65048 1:26.340442 
0.2967136600142419 0:161.27324 1:25.763572 
0.5531282774301017 0:162.10251 1:24.972711 
0.3428510259898848 0:160.39458 1:26.137026 
0.02262631336395577 0:159.96393 1:26.684325 
0.4255980391111495 0:159.83686 1:27.747845 
0.5342957434090937 0:160.95464 1:27.378179 
0.7836362327104338 0:158.47413 1:27.414096 
0.3914770027581103 0:153.74134 1:27.352236 
0.383079976256086 0:152.91021 1:27.329227 
0.3009874181445589 0:156.26832 1:25.89454 
1 0:148.42348 1:23.741298 
1 0:144.98814 1:23.235917 
1 0:140.5734 1:22.615711 
1 0:131.48503 1:21.250454 
0.8608847675851475 0:118.52011 1:20.22827 
0.7389891587977891 0:107.88061 1:18.515927 
1 0:101.87972 1:18.896838 
1 0:90.073865 1:19.483497 
0.7374742751575084 0:59.79671 1:15.620884 
0.7304465837316509 0:53.796543 1:15.453937 
0.6961909245837785 0:177.43768 1:17.640724 
0.02438777071683087 0:178.46753 1:16.572185 
0.670144726787519 0:178.68889 1:16.441236 
0.7898437350011183 0:181.31105 1:15.685343 
0.97168760996663 0:172.51083 1:16.156414 
1 0:170.43766 1:16.092573 
0.8799487643005284 0:164.2606 1:17.967385 
0.2777951152454126 0:165.97308 1:17.804341 
0.5070208693144298 0:165.33794 1:16.811253 
0.6223982092246227 0:165.07925 1:16.371567 
0.9396082510813337 0:158.77537 1:16.901276 
0.7979486260463424 0:159.10759 1:14.377007 
0.5221286173533621 0:161.40343 1:14.79921 
0.7163525105702491 0:168.97149 1:13.586259 
0.7631991954865622 0:174.76735 1:13.561388 
0.7123596467933945 0:170.10401 1:13.927539 
1 0:177.52664 1:12.83079 
0.7343743582066657 0:179.90289 1:12.449877 
0.7257973698794218 0:181.53986 1:10.935935 
0.4134338676333654 0:116.73968 1:14.441926 
1 0:121.41093 1:13.471327 
0.4273613256338912 0:133.34186 1:12.496395 
0.4897192361332431 0:134.04754 1:12.514008 
0.9471453455242356 0:127.22886 1:11.162531 
0.3803001526708193 0:180.84392 1:18.409344 
0.7301781981724617 0:185.2636 1:16.943847 
0.472493616089713 0:182.15233 1:18.074481 
0.7279660451749481 0:175.75352 1:19.269374 
0.5266829825576389 0:180.03468 1:18.293595 
0.5707821896465306 0:183.07958 1:18.564364 
0.9638482733137186 0:168.03361 1:18.921857 
1 0:166.05611 1:18.462805 
1 0:154.80222 1:18.355635 
0.1626488341248548 0:144.53668 1:17.798726 
0.492432246457028 0:122.14254 1:18.034117 
0.6382422779502135 0:131.31031 1:15.987967 
0.642368398915515 0:128.52152 1:18.210915 
1 0:131.52126 1:18.441173 
0.6541419942747292 0:144.72948 1:16.757027 
0.8676558946738671 0:158.57095 1:14.816298 
0.3850256301185027 0:165.38015 1:14.664153 
0.009762895101077886 0:169.92505 1:13.770055 
0.4169351757381998 0:165.40138 1:14.285981 
0.8038071578101524 0:160.30666 1:14.554577 
1 0:156.50054 1:15.751477 
1 0:147.43147 1:13.053821 
1 0:142.57285 1:13.59694 
0.4350161397357483 0:136.17985 1:14.592025 
0.8796015958715151 0:144.24772 1:12.969924 
0.6191353052191823 0:146.49502 1:11.815582 
0.08627923161864337 0:145.8189 1:11.747403 
0.5895035425562616 0:141.53762 1:12.263622 
0.5359735518844554 0:140.4012 1:11.392642 
0.1612201852492686 0:139.57565 1:10.803358 
0.6862662133825403 0:134.56401 1:8.9679308 
0.5454974370261323 0:117.2701 1:8.544452 
0.777211016432251 0:100.75659 1:7.5687945 
0.5072175025448495 0:85.772758 1:7.0873817 
0.4258186410407534 0:74.461649 1:6.8470671 
0.5205022935684874 0:86.197695 1:6.2473188 
0.4602364652228473 0:79.325292 1:6.8878874 
0.4133955727880089 0:74.581735 1:6.205548 
0.6919688665170473 0:61.920554 1:4.3953201 
0.6007728275290989 0:50.61427 1:10.764623 
0.2135310515258166 0:50.662362 1:10.581111 
0.7098755032100259 0:25.591042 1:8.4206988 
0.7292118364206159 0:90.648365 1:7.6812185 
1 0:135.23979 1:20.009568 
0.7638080503393619 0:108.79914 1:10.56734 
0.5228361193624883 0:145.03768 1:11.726028 
0.666789847513358 0:121.67115 1:9.1487652 
0.7318552853971834 0:107.48775 1:7.8114355 
0.5673322652300983 0:143.38748 1:9.389451 
0.05504856879194971 0:120.15318 1:10.393912 
0.5640131636242404 0:135.59147 1:14.412891 
0.7565653453769856 0:184.55569 1:10.167654 
0.7307903709267678 0:192.01396 1:7.2112413 
0.7307488209206167 0:177.55627 1:5.7867188 
0.7308003603345966 0:126.44232 1:4.4874881 
0.7270798008672745 0:83.608401 1:6.5828385 
0.2561741099625403 0:58.231822 1:7.1936947 
0.7307688398476899 0:80.907553 1:3.9684299 
0.7305612097705471 0:146.00716 1:5.8138379 
0.6889805048057799 0:131.68727 1:5.2930794 
0.7308606520048646 0:107.88332 1:4.5801834 
0.7133711359016564 0:78.683556 1:13.475155 
0.5025442368915873 0:61.221752 1:5.8517936 
0.5054799232647949 0:67.305726 1:6.8439442 
0.7307644449005138 0:93.75806 1:7.7841829 
0.9042260090549156 0:69.097147 1:11.32699 
0.7581841141682244 0:98.024691 1:7.7098275 
0.7002862602153113 0:133.83597 1:7.3597081 
0.6851843949109904 0:76.180156 1:6.7066536 
0.6720719725077957 0:43.652797 1:4.2057704 
0.8971773529021775 0:49.170959 1:6.7930599 
0.4604838079710919 0:66.104399 1:6.6614507 
1 0:62.378254 1:17.322571 
1 0:74.751434 1:17.489659 
0.3910776124489692 0:121.83117 1:18.460821 
0.2567027508035654 0:139.10029 1:16.460404 
0.7308564802778231 0:208.1899 1:7.3465951 
0.7303583069876896 0:229.87069 1:3.4214898 
0.7306938479990521 0:243.00462 1:1.7170649 
0.7305096954975705 0:250.66087 1:1.2699251 
0.7305550030030147 0:232.91384 1:3.366748 
0.7305606439487836 0:182.81695 1:7.9023275 
0.4384295752112085 0:226.58775 1:4.0480599 
0.4383005480209389 0:226.78449 1:3.4422711 
0.7307595740663939 0:215.60116 1:5.4816319 
0.7313052720950679 0:34.32489 1:3.0922971 
0.3221240356833094 0:66.49721 1:7.4235514 
0.5219814872426912 0:95.376141 1:13.147081 
0.0580799248783434 0:122.45326 1:20.129173 
1 0:122.39369 1:19.991041 
0.5827153272971881 0:118.01891 1:14.711431 
0.6761738937160124 0:93.704719 1:11.636679 
0.5548685661140863 0:61.924423 1:6.772003 
0.5819825202762231 0:30.4205 1:3.1243251 
0.6597293622805421 0:5.3187858 1:5.9110514 
0.7308032055271775 0:14.100737 1:8.3264421 
0.7116233383429731 0:7.3158138 1:6.6854883 
0.7306946014483109 0:8.4818641 1:11.926739 
0.3652161975964277 0:20.041388 1:15.862603 
0.3684881475113952 0:20.079912 1:15.780065 
0.7307164094846308 0:17.124885 1:15.184309 
0.7391825663473182 0:11.130544 1:12.834745 
0.5576817971300823 0:1.8485547 1:0.63973524 
0.9054562447167989 0:62.856107 1:20.647865 
0.730831488457757 0:59.820078 1:21.855404 
0.7319431780088725 0:45.087318 1:19.212487 
0.6030425687411912 0:77.941732 1:23.48638 
1 0:114.15911 1:29.773255 
1 0:110.18444 1:28.707839 
0.6415901016372928 0:131.2031 1:31.797591 
0.635491373818354 0:128.20068 1:32.148932 
0.6297716290017299 0:131.11878 1:30.395 
0.4287720056222459 0:134.74365 1:32.345469 
0.8441774649674207 0:118.7365 1:31.862552 
1 0:112.19163 1:29.994714 
1 0:110.94411 1:29.61375 
0.2822503736416205 0:113.45276 1:30.123112 
0.3369165116398204 0:122.86091 1:30.324831 
0.01251015468263911 0:126.12562 1:34.809909 
0.5101119466719989 0:133.55969 1:32.179779 
0.6357386001883635 0:126.85708 1:32.481771 
0.5980322008940517 0:122.45307 1:33.657943 
0.534735851170094 0:124.73395 1:34.43931 
1 0:136.9653 1:24.203841 
0.7305856733583321 0:168.96056 1:33.59974 
0.7307657768873029 0:151.05654 1:35.100729 
0.7304199237651685 0:156.08466 1:29.099128 
0.7308724737924621 0:175.11161 1:32.230495 
0.7377809174480636 0:180.96948 1:30.203854 
0.7310645949152184 0:213.73642 1:11.355898 
0.7411889963902865 0:124.75637 1:12.778112 
0.4057290892275187 0:81.990456 1:16.359779 
0.4385433754228534 0:43.709076 1:13.546862 
0.7894557623737951 0:88.08638 1:25.111706 
0.7520369687742621 0:132.74818 1:28.087422 
0.8965421843767445 0:142.7497 1:31.92 
0.7307923596018537 0:213.56215 1:18.411016 
0.5990774705704317 0:6.1636068 1:8.801276 
0.9786363615144771 0:86.83191 1:45.883437 
0.5793931965097138 0:83.478889 1:43.308737 
0.8303242470452078 0:87.152448 1:43.281189 
0.7562199022303578 0:97.592643 1:42.568507 
0.7308485136238265 0:115.14161 1:33.295747 
0.8723376190212945 0:102.21919 1:34.669826 
1 0:121.11106 1:29.73628 
0.4293279860542741 0:123.91028 1:29.345469 
1 0:105.39052 1:35.752305 
0.4629711389165829 0:113.92394 1:26.6924 
0.3040466357400719 0:102.66597 1:30.784015 
0.7408865326000248 0:84.195243 1:32.713286 
1 0:80.482569 1:19.08112 
0.9696995242124421 0:87.390573 1:31.198741 
0.5277381949465891 0:71.754891 1:30.842878 
0.2307045149708131 0:88.323194 1:26.115738 
0.5671734122860633 0:78.325152 1:21.53082 
0.5285832503362323 0:66.011246 1:29.820217 
0.101847787703726 0:130.57696 1:21.123051 
0.7900881327489552 0:75.210807 1:21.740786 
1 0:93.162287 1:22.433828 
1 0:143.16684 1:24.651476 
1 0:141.76053 1:22.755391 
0.958010860239649 0:89.361263 1:27.238003 
0.7319016742761002 0:67.466211 1:28.380321 
0.7786087395017727 0:71.57638 1:27.278594 
1 0:95.4173 1:27.945681 
1 0:83.810846 1:26.489974 
0.9139415361456753 0:60.00467 1:26.029774 
0.7040624505213626 0:56.087148 1:25.73829 
0.7307026248133508 0:58.189596 1:45.769648 
1 0:74.417635 1:49.573325 
0.7408974545061151 0:70.048168 1:43.591363 
0.736525092054561 0:67.469141 1:35.970104 
0.649126111724902 0:71.147504 1:32.405612 
0.5041699849087006 0:70.699813 1:30.937405 
0.7232009339294856 0:94.873785 1:31.688299 
0.7442758613442614 0:99.316615 1:35.156102 
1 0:104.03674 1:37.508442 
1 0:111.92632 1:35.881953 
0.9581725534978576 0:112.47716 1:36.976367 
0.9380636448447266 0:115.35819 1:44.317253 
0.7757426215815019 0:128.66161 1:37.35207 
0.7859527210240254 0:126.55955 1:34.970378 
0.3400838218334045 0:123.24993 1:34.375777 
0.8396601769534652 0:118.09189 1:37.215851 
1 0:119.10808 1:41.063177 
0.6936116431249119 0:126.45127 1:52.628737 
0.5528478701968423 0:125.73831 1:51.715651 
0.7415855212880109 0:78.452157 1:42.417153 
0.5145136999469377 0:76.156476 1:39.691762 
0.7237584267425091 0:49.095356 1:23.119796 
0.7177456827869954 0:27.416619 1:22.866215 
1 0:38.837912 1:19.315972 
0.8789738738366035 0:84.1002 1:25.619214 
1 0:121.09811 1:45.423477 
1 0:115.72368 1:45.197773 
0.5411709748657698 0:107.80799 1:37.195425 
0.6688814639352132 0:80.24714 1:45.52079 
0.6796170062940292 0:81.078563 1:44.144301 
1 0:93.607431 1:45.605087 
1 0:93.048446 1:43.042114 
0.3056469799968288 0:108.87896 1:38.705677 
0.7750715439491719 0:106.43062 1:40.147378 
0.5803688203882466 0:107.09214 1:41.33931 
0.05899135015730756 0:97.516502 1:42.313511 
1 0:94.139774 1:41.228194 
0.7757564140175209 0:81.692222 1:38.234462 
1 0:87.655135 1:46.250734 
0.7395812679596322 0:89.204748 1:47.322921 
0.4394325493895618 0:86.061367 1:45.860833 
1 0:85.792296 1:31.365022 
1 0:74.233307 1:35.981515 
0.7779927460152017 0:73.684405 1:33.608294 
0.7275831548285715 0:75.867973 1:33.414774 
0.02342629018409885 0:79.804761 1:33.103021 
0.0549399553315905 0:81.550516 1:33.091228 
1 0:81.023199 1:30.620738 
1 0:79.746997 1:29.979327 
0.1902908348282693 0:84.674353 1:31.21793 
1 0:86.801836 1:30.72974 
0.8289770864548658 0:76.655981 1:39.669149 
1 0:87.849262 1:44.322218 
0.05219421102856147 0:86.667322 1:46.386172 
0.6713604568731319 0:89.176502 1:36.797734 
0.7577563123696571 0:36.676172 1:13.525326 
0.5228457545297733 0:99.313286 1:39.716124 
1 0:102.93885 1:36.362747 
0.5435985971772898 0:104.94094 1:36.294115 
0.2007502933903228 0:123.77874 1:29.831311 
0.4871753495834492 0:103.67684 1:30.825503 
1 0:112.47328 1:29.205911 
0.9230018525559731 0:139.11611 1:22.397365 
1 0:97.24286 1:27.542934 
1 0:101.12103 1:24.714345 
1 0:102.85376 1:22.951732 
1 0:109.01461 1:23.456237 
0.7315175096246354 0:63.056745 1:32.439835 
0.6822325088844641 0:44.807014 1:27.442604 
0.7299919978241045 0:43.790608 1:21.579141 
1 0:63.302183 1:19.458637 
0.253942257981598 0:72.881402 1:23.210916 
0.6482266372269803 0:74.036341 1:26.458707 
0.7301633043347403 0:82.133338 1:30.749123 
0.7889723418401743 0:92.83214 1:31.538702 
0.1805819301292459 0:96.72178 1:32.461784 
1 0:98.486953 1:32.702044 
0.6650829335799247 0:101.0854 1:33.287214 
0.6588027546345027 0:102.77099 1:33.477062 
1 0:106.1001 1:34.26135 
1 0:107.82964 1:35.17303 
1 0:178.12466 1:23.819592 
1 0:149.31717 1:23.277487 
0.7307797740718773 0:206.64689 1:11.956918 
0.5961131954376443 0:149.55128 1:24.847817 
0.6459018620478232 0:113.8923 1:33.832391 
0.7451401957468092 0:90.141727 1:37.947131 
0.1766046096857072 0:102.93901 1:36.509436 
1 0:90.943542 1:37.836576 
1 0:80.784909 1:31.370104 
0.619045918826269 0:81.888572 1:33.023898 
0.5840529720861325 0:85.118034 1:36.545165 
1 0:85.369935 1:31.995499 
1 0:101.70213 1:36.527352 
0.7313809489476939 0:115.96307 1:53.683112 
0.7294366212719428 0:53.309952 1:42.142057 
0.7214779234082851 0:49.427422 1:41.105477 
0.7215539310074446 0:49.903607 1:39.074809 
0.5966328355445401 0:56.665039 1:41.832522 
0.7226721192449996 0:51.07872 1:22.290742 
0.7303746574336855 0:45.392422 1:24.116858 
0.6833682616085058 0:62.925109 1:28.39378 
0.697540662941017 0:100.98954 1:44.986567 
0.6454929314770208 0:102.77362 1:45.311515 
0.7926784458915153 0:104.22515 1:44.778194 
0.7356970245843137 0:109.12998 1:43.193937 
1 0:106.5186 1:42.966115 
1 0:92.966957 1:50.76148 
0.7307666557352317 0:66.011259 1:43.28605 
0.5952502758458577 0:55.605946 1:41.222739 
0.7306653715940594 0:51.689062 1:35.54773 
0.6924168041067106 0:47.966753 1:28.328854 
0.7079196472280145 0:60.009861 1:32.713273 
0.7242953649121712 0:77.651884 1:29.121602 
0.5447007922366232 0:79.99888 1:27.66227 
0.2117680188261343 0:84.364718 1:28.548108 
0.3835828128593445 0:84.247253 1:29.171233 
0.4972727134494548 0:83.754371 1:30.432431 
1 0:84.664384 1:34.192808 
0.1517768398759509 0:93.619644 1:40.923286 
0.6106913378183765 0:88.442938 1:38.024162 
0.9447917001342123 0:72.594627 1:35.430612 
1 0:60.494154 1:29.152244 
0.9993430123302847 0:119.75036 1:53.502274 
0.9932595499733965 0:100.7029 1:43.064887 
0.6855961240387471 0:86.105894 1:36.112734 
1 0:82.986163 1:35.834423 
1 0:79.872122 1:34.958707 
0.6204030196908894 0:77.332717 1:36.795977 
0.9579724491401624 0:77.923364 1:37.872066 
0.7040569839779698 0:79.566155 1:39.365456 
0.7166199826445276 0:82.742348 1:40.000234 
0.6343888468963063 0:84.860082 1:40.2602 
1 0:88.159549 1:47.023572 
1 0:87.337964 1:49.332509 
0.8491257779625149 0:79.502535 1:51.339722 
0.5866120665411111 0:80.293077 1:49.773607 
0.5190681087799971 0:79.552635 1:48.754219 
0.6462347976557992 0:79.406445 1:47.361975 
0.7300682853984379 0:77.065334 1:43.906467 
0.9297394853567202 0:74.174557 1:39.143746 
0.4870392332845145 0:74.430807 1:37.96099 
0.2860041608161131 0:75.384149 1:36.523199 
0.6865246096170647 0:76.556658 1:35.550946 
1 0:79.177964 1:32.818238 
0.5518373366658869 0:80.623151 1:28.472413 
1 0:85.626819 1:30.443277 
0.3345406595025129 0:75.043437 1:37.214019 
0.2475777430560058 0:89.117044 1:47.921784 
0.7257793209415629 0:91.328003 1:46.890056 
1 0:115.38029 1:42.289705 
0.4123860751556669 0:138.50399 1:36.150933 
0.9120374001069937 0:122.39266 1:40.494154 
1 0:122.78094 1:41.128021 
0.7428245489535901 0:121.40725 1:42.452878 
1 0:120.12173 1:42.856115 
0.6271613868857495 0:85.625629 1:41.439905 
0.6997091843484951 0:78.240907 1:40.294323 
0.3656638080575749 0:108.8255 1:32.867222 
1 0:80.6299 1:34.232096 
0.7305512643546117 0:55.51816 1:36.699293 
0.7076551542566671 0:58.847925 1:34.152066 
1 0:85.72204 1:29.293576 
0.7420868983465274 0:68.823902 1:33.228446 
1 0:65.496879 1:30.952674 
0.4490286640648161 0:61.459149 1:28.735265 
0.7418971482711146 0:58.283555 1:27.848125 
0.6944327418276163 0:55.123854 1:27.164831 
0.6369703879131531 0:46.358746 1:27.849939 
0.4006723922356508 0:84.395503 1:31.490981 
1 0:95.585395 1:34.184288 
0.4632633320798518 0:89.744683 1:33.928225 
0.4130316392512765 0:89.479679 1:33.761458 
0.732142175027335 0:53.603932 1:21.850569 
1 0:77.744714 1:24.973338 
0.583182362809036 0:69.788889 1:22.389653 
1 0:69.741445 1:21.118841 
0.4567471962848625 0:72.0377 1:22.461584 
0.6130573186732311 0:70.827756 1:21.126901 
1 0:88.834201 1:24.248307 
0.3271893710209995 0:91.104306 1:26.541276 
0.5457044668073388 0:87.330616 1:26.765998 
1 0:34.016576 1:15.153689 
0.7257265071046902 0:23.656523 1:15.317513 
0.7309582034716775 0:29.885282 1:17.198581 
0.5444550060652148 0:98.657995 1:38.804848 
0.6286519519428729 0:97.104835 1:32.122444 
0.06861921559631651 0:99.071424 1:35.65112 
0.5594707936797056 0:106.3573 1:37.017261 
1 0:108.5228 1:39.998772 
0.7476863471799525 0:118.85151 1:38.215408 
0.7632746868582208 0:129.15471 1:39.237196 
0.6245464894307191 0:131.31627 1:38.175977 
0.7211447671279319 0:131.60734 1:40.798264 
0.9126295198891151 0:135.23532 1:26.975425 
0.7866761903074334 0:132.21212 1:55.302674 
1 0:127.59192 1:19.148446 
1 0:131.14698 1:19.747778 
1 0:129.60558 1:28.917973 
0.6152521870295952 0:128.16019 1:29.743859 
0.706055575817056 0:124.13607 1:31.69148 
0.5478150067426036 0:119.9464 1:28.662457 
0.5402135687621435 0:116.68241 1:21.575291 
1 0:113.27758 1:26.192248 
0.6376803139573551 0:108.39382 1:33.391467 
1 0:104.3503 1:43.997192 
0.6932013053138972 0:100.34403 1:38.542691 
1 0:93.042509 1:24.799123 
1 0:87.8702 1:22.937951 
1 0:104.0597 1:24.153203 
1 0:105.51335 1:23.842257 
1 0:106.99626 1:23.48339 
1 0:107.55426 1:21.460334 
0.04237677012521504 0:106.83092 1:23.287196 
1 0:102.2487 1:31.689857 
0.5157170077423305 0:96.706285 1:33.984796 
0.3777273462731799 0:84.27178 1:28.411714 
1 0:94.814049 1:26.506124 
0.2462459588235562 0:94.644852 1:26.437713 
0.5249547421107644 0:91.247391 1:26.054327 
0.2345073336975711 0:91.885117 1:26.414323 
1 0:92.038976 1:33.96168 
0.600849639411273 0:5.4129427 1:7.4076215 
0.6552358407566886 0:6.9838021 1:9.9940712 
0.6851108383785429 0:2.4151345 1:4.1945269 
1 0:123.99753 1:19.56033 
0.4240397976077103 0:124.15553 1:20.802873 
0.8635928538397202 0:123.94273 1:19.648763 
0.7468802230268928 0:85.400597 1:22.069998 
0.6379763037439625 0:80.9824 1:22.057837 
0.1431731489218146 0:79.288577 1:22.279741 
0.1992463902597825 0:78.726956 1:22.402725 
0.3528074669336735 0:79.803292 1:22.047183 
1 0:137.03262 1:17.59639 
0.2494224014163394 0:137.10762 1:17.612598 
1 0:133.1421 1:24.358061 
0.5595511832319584 0:134.29274 1:24.265164 
0.4358626575136912 0:116.73284 1:20.816595 
0.5402398744272815 0:118.21456 1:21.257527 
1 0:143.9137 1:15.299484 
0.3248516166930853 0:83.531859 1:42.222108 
0.3130165176301241 0:84.109365 1:42.36916 
0.4523036092080257 0:53.714807 1:12.431921 
0.7134064700523718 0:76.81696 1:13.012929 
0.6813882369075219 0:62.721469 1:12.594827 
1 0:74.113878 1:14.770225 
1 0:92.03607 1:11.965879 
0.08810884226013682 0:91.640139 1:11.461777 
1 0:85.064902 1:12.762556 
0.3981788744392171 0:123.82225 1:35.221179 
0.627239246246255 0:124.983 1:36.082796 
0.6010852463331219 0:79.659056 1:20.016933 
0.5003456672622947 0:81.342683 1:16.105277 
0.6489316026575364 0:83.25608 1:16.023133 
0.6938189353951187 0:114.77368 1:26.766556 
1 0:115.22028 1:28.399495 
0.6473559903393118 0:139.81554 1:16.6975 
0.1904198342375983 0:131.03071 1:15.1909 
0.7853345510722221 0:139.38971 1:14.839657 
1 0:119.06625 1:14.115562 
0.3160601820994912 0:115.32803 1:14.955361 
1 0:73.748686 1:23.93152 
0.1808978387960595 0:0.54341037 1:0.077326389 
0.661481589106472 0:42.882452 1:7.0636426 
0.7199120138918735 0:59.34255 1:10.861351 
1 0:64.437974 1:12.128872 
0.7161324438909923 0:41.016089 1:5.6571083 
0.5594459863597362 0:24.437748 1:4.3031076 
0.2396300840870237 0:3.2080534 1:1.6552973 
0.115527265107867 0:2.785446 1:2.2348622 
1 0:6.7971615 1:3.5525499 
0.2542614408109536 0:3.1889355 1:2.928431 
0.3337283024392154 0:3.8295193 1:3.0902485 
1 0:106.10055 1:25.448794 
0.6697693596277081 0:120.37381 1:10.720894 
1 0:36.761324 1:9.8230935 
0.6205852223668994 0:60.032626 1:7.1061556 
1 0:28.930761 1:5.6504275 
0.8271323966140138 0:93.660641 1:26.297007 
0.9671550540225561 0:98.208724 1:36.098559 
1 0:101.56862 1:29.406693 
0.6103322470392545 0:102.00965 1:29.679022 
1 0:85.782206 1:33.276335 
1 0:91.626451 1:30.789025 
1 0:92.762758 1:33.001655 
1 0:84.834494 1:24.967343 
0.7300285723949025 0:91.663403 1:25.655916 
1 0:88.02103 1:27.740585 
1 0:95.770795 1:25.140945 
1 0:119.13222 1:25.751424 
0.4651516071871308 0:2.0117784 1:1.8542622 
0.179182380861565 0:0.24226671 1:0.37403537 
0.6867675967879048 0:16.650734 1:1.5390437 
0.6195656792283182 0:26.158469 1:2.4075116 
0.8187372216068243 0:75.101696 1:3.1257465 
0.7276127594364922 0:87.558983 1:8.5678429 
1 0:38.746982 1:19.132896 
0.6150754053142922 0:4.0063773 1:0.87905961 
0.7307787554962091 0:53.774162 1:0.48177951 
0.7308601691945279 0:142.03334 1:2.3330165 
0.7254991366691997 0:179.01413 1:1.814511 
0.7307980072767669 0:136.21732 1:1.117568 
0.7303577760992686 0:44.484133 1:0.42932581 
0.5319625625526361 0:96.169282 1:12.565747 
1 0:115.87009 1:15.978403 
0.7291233928177728 0:82.587789 1:13.209705 
1 0:100.24487 1:10.368669 
0.570577119960237 0:94.472396 1:17.353987 
0.628678540314956 0:131.59901 1:13.780521 
0.7165625246371534 0:132.82821 1:9.947228 
0.728203756108049 0:115.07218 1:10.10669 
0.6778207252840521 0:91.365388 1:10.257216 
0.6865598311270591 0:131.36028 1:6.928912 
0.1310663250415462 0:24.093602 1:3.8564421 
0.7127268953756888 0:50.250116 1:3.4441428 
0.5804906068188749 0:39.303109 1:9.2578765 
0.6318435533158646 0:62.368488 1:10.717399 
0.2971560209942101 0:61.279755 1:11.220069 
0.7090196422374186 0:62.994046 1:8.235128 
0.6257595257341055 0:38.216206 1:5.2726313 
0.7380971056595955 0:35.236467 1:11.07092 
0.8441345207225995 0:113.36617 1:31.378628 
0.7223103784771522 0:130.01361 1:42.087639 
1 0:117.00833 1:33.551105 
0.9808901456282221 0:129.23358 1:40.384728 
1 0:97.905995 1:45.409716 
1 0:99.709225 1:56.138976 
1 0:106.88677 1:60.230052 
0.7375715680101634 0:103.97288 1:32.143437 
0.2848171596206348 0:122.3991 1:29.878941 
1 0:110.94479 1:35.982159 
0.5075565451677145 0:108.71921 1:38.065098 
0.9001656468375385 0:133.54947 1:53.5057 
0.4495988406335608 0:131.25236 1:37.408218 
0.5369834212793624 0:121.21584 1:24.796904 
1 0:124.28464 1:44.838628 
0.7150258852561434 0:114.40198 1:36.259578 
0.6862707666762631 0:15.913675 1:0.055439815 
0.730791013607474 0:36.173169 1:23.489309 
0.7312076882419476 0:54.447249 1:32.375284 
0.7305472261918389 0:204.66594 1:3.7405859 
0.7311073804725015 0:165.49595 1:5.5390093 
1 0:74.563899 1:25.074632 
0.3279451337720221 0:72.845359 1:22.381788 
0.3707071475077888 0:43.762057 1:13.258704 
1 0:76.916628 1:4.1714258 
0.7296575840929018 0:53.188806 1:4.1216602 
0.7303077175298138 0:115.23129 1:3.9146278 
0.4101115443373781 0:118.91589 1:8.827232 
0.9190992699433845 0:103.57024 1:19.246149 
0.7866564610488698 0:108.70725 1:16.407222 
0.6000129201345699 0:115.61157 1:14.199528 
0.7991201346578263 0:125.61933 1:18.394168 
0.7553009506155027 0:124.78587 1:9.8908474 
0.5399574072073365 0:117.43821 1:9.6402799 
0.5045330245805034 0:119.68597 1:8.4683333 
0.5024073451913559 0:122.1534 1:7.3468186 
0.4308616629317593 0:121.31664 1:7.5344466 
0.7297686710621578 0:85.13083 1:10.217033 
0.7378420875780239 0:201.9233 1:2.8025401 
0.5786679527013787 0:60.78758 1:11.975719 
0.371675941860681 0:48.414168 1:7.7724588 
0.4440273755182534 0:48.380157 1:6.8810471 
0.7177565971962669 0:58.418995 1:8.2462977 
0.6533570665940411 0:64.254145 1:13.839198 
0.6643409509410144 0:44.360091 1:7.3995573 
0.2195217444298092 0:54.362131 1:8.7639225 
1 0:54.326093 1:8.3612923 
0.7864565622736318 0:99.802612 1:12.997754 
0.7307793106768929 0:197.72159 1:9.3519184 
0.3781867461225688 0:151.79203 1:4.0622342 
0.3735098487167723 0:74.712493 1:16.428271 
0.7306810616755637 0:105.67848 1:13.53115 
0.730811992967069 0:201.98706 1:15.496276 
0.7714702524014342 0:109.86549 1:16.079903 
0.6497761513454998 0:73.094743 1:15.777633 
0.5546540893787029 0:38.906439 1:8.189566 
0.455466725085259 0:54.064118 1:11.823228 
1 0:113.56799 1:16.06373 
1 0:27.709648 1:24.92096 
0.7308870733119902 0:255 1:0 
0.6513705158442403 0:23.76681 1:5.2950543 
0.6444916679327114 0:4.8197732 1:2.4353418 
1 0:140.35464 1:13.863494 
0.7258454524590496 0:25.745993 1:16.143762 
0.7308576980689891 0:39.935591 1:33.110232 
0.8231208339221234 0:50.571266 1:32.651203 
0.73078713947423 0:18.264239 1:11.456168 
0.6790294459171349 0:65.261093 1:12.236656 
0.7804285392997233 0:21.40185 1:7.5602615 
0.357635878283323 0:23.878359 1:8.3477311 
0.8624848402749098 0:23.183411 1:7.9680187 
0.4376394196976272 0:0 1:0 
0.7286695229184331 0:8.6431359 1:4.5268837 
1 0:50.165794 1:5.2818392 
0.7297959034310351 0:90.795292 1:5.1189453 
0.4563506120172995 0:78.779176 1:6.4165039 
0.8016367614428372 0:54.335941 1:6.3709245 
0.5958789712994347 0:39.032202 1:6.3085612 
0.6751943649315656 0:66.521219 1:13.228828 
0.7256935762938058 0:180.67799 1:3.3132704 
0.7302944957406294 0:70.712629 1:3.3027018 
0.4681798329100824 0:24.920578 1:2.6043359 
-0.5397233010341702 0:89.853329 1:18.370473 
-1 0:116.15426 1:16.31593 
-1 0:181.32339 1:14.010635 
-1 0:104.89803 1:35.461755 
-1 0:28.314932 1:4.8632823 
-1 0:33.571986 1:5.7389128 
-0.9729077458273121 0:145.60209 1:21.711717 
-1 0:145.12924 1:28.558436 
-1 0:109.23537 1:15.021351 
-1 0:98.194029 1:15.391848 
-1 0:102.98666 1:28.304986 
-1 0:73.891086 1:14.223146 
-0.2132215231495753 0:117.88841 1:25.092356 
-1 0:96.513236 1:30.322258 
-1 0:100.41439 1:36.753566 
-0.005026424250892101 0:111.53753 1:27.423676 
-0.2554543438497335 0:109.58094 1:29.808905 
-1 0:111.5717 1:30.08816 
-1 0:102.79711 1:23.147865 
-1 0:110.35024 1:18.331327 
-0.7673944156592803 0:85.734303 1:25.20687 
-0.9142894530201431 0:115.99998 1:23.654922 
-1 0:149.31197 1:19.381389 
-1 0:163.07016 1:15.09227 
-1 0:163.62078 1:22.938772 
-1 0:126.50595 1:27.097457 
-1 0:138.07838 1:31.481931 
-1 0:111.26987 1:22.036363 
-0.5891693794525921 0:140.52386 1:30.880955 
-1 0:132.55202 1:26.137904 
-1 0:136.19465 1:17.41352 
-0.4650600411149671 0:41.835443 1:16.060764 
-0.226650925552441 0:41.383789 1:16.039006 
-1 0:44.419605 1:16.755473 
-0.2953106531192936 0:43.821016 1:16.001289 
-0.8953039819917887 0:41.089657 1:15.072431 
-1 0:46.009271 1:15.984327 
-0.7654561218961128 0:43.219727 1:15.899219 
-1 0:41.963325 1:13.97773 
-1 0:7.0449913 1:3.1551259 
-1 0:133.89546 1:23.033216 
-1 0:134.41681 1:25.742734 
-1 0:132.37514 1:24.609779 
-1 0:131.13042 1:17.65651 
-1 0:123.666 1:19.338932 
-1 0:135.96699 1:25.49612 
-1 0:76.699531 1:24.911042 
-1 0:162.17672 1:30.762057 
-0.9853660999122702 0:156.76191 1:21.193607 
-0.9426430517675481 0:117.26418 1:26.036341 
-1 0:235.39311 1:9.6072135 
-1 0:84.460256 1:44.843021 
-0.6304195902076639 0:104.58711 1:34.899427 
-1 0:103.613 1:38.208832 
-1 0:112.22011 1:34.662995 
-1 0:102.6144 1:32.165577 
-1 0:81.179162 1:35.095664 
-1 0:91.082535 1:31.570586 
-1 0:94.318607 1:50.056606 
-1 0:94.944284 1:48.341918 
-1 0:87.032131 1:30.438394 
-1 0:142.92662 1:33.257977 
-1 0:128.09062 1:34.982509 
-1 0:116.33664 1:34.08977 
-1 0:111.51475 1:27.186489 
-1 0:88.563472 1:27.787196 
-1 0:104.06523 1:27.873728 
-1 0:137.33239 1:24.965477 
-1 0:130.72768 1:19.100864 
-1 0:55.173676 1:19.017374 
-1 0:108.50029 1:21.654653 
-1 0:60.270647 1:27.301072 
-1 0:93.066957 1:33.234531 
-0.3741152846224679 0:111.5506 1:30.440716 
-1 0:118.13897 1:22.650612 
-1 0:67.100234 1:23.737582 
-1 0:73.650664 1:24.53908 
-1 0:99.328893 1:18.287153 
-0.9090245182419161 0:111.50758 1:31.575417 
-1 0:124.33906 1:27.21724 
-1 0:104.02366 1:24.652704 
-1 0:94.401918 1:27.657817 
-1 0:75.034562 1:49.527665 
-1 0:76.341063 1:55.637001 
-1 0:71.592057 1:41.685152 
-1 0:69.696645 1:38.745126 
-0.8188912365105636 0:114.32223 1:40.255838 
-0.8936625485965416 0:121.92461 1:44.036515 
-1 0:127.94543 1:52.605877 
-1 0:120.95902 1:45.152574 
-1 0:118.50349 1:45.101081 
-1 0:114.97701 1:42.906042 
-1 0:115.4696 1:40.204622 
-1 0:112.32673 1:30.677661 
-1 0:96.646259 1:44.715977 
-1 0:93.584514 1:44.442782 
-1 0:91.356393 1:44.478967 
-1 0:99.945451 1:41.857578 
-1 0:90.785725 1:38.158498 
-1 0:83.823568 1:37.83145 
-1 0:75.639783 1:38.698346 
-1 0:88.561146 1:46.817248 
-1 0:78.750911 1:36.659618 
-1 0:118.37189 1:58.565043 
-1 0:127.13682 1:64.535195 
-1 0:110.99595 1:55.160846 
-0.8772573462271724 0:83.511775 1:47.500625 
-1 0:80.500994 1:41.007348 
-1 0:76.65678 1:41.817947 
-1 0:75.616836 1:46.952005 
-1 0:74.537318 1:48.445239 
-1 0:84.663615 1:52.866723 
-0.2309895458306322 0:82.64293 1:50.406749 
-1 0:80.006845 1:52.631315 
-0.7780072178064532 0:88.392813 1:50.928728 
-1 0:92.030799 1:57.438967 
-1 0:87.00977 1:44.934887 
-1 0:89.068273 1:53.641176 
-1 0:87.972001 1:52.334783 
-1 0:87.962904 1:50.051068 
-1 0:88.585738 1:44.028359 
-1 0:73.996311 1:44.872465 
-1 0:71.65322 1:45.106489 
-0.890228867537084 0:82.619036 1:47.712183 
-1 0:103.82797 1:54.894635 
-1 0:116.12542 1:57.985334 
-0.5512149167967577 0:63.863715 1:17.789058 
-1 0:103.64018 1:43.33036 
-1 0:103.02602 1:47.668754 
-1 0:76.711849 1:48.321814 
-1 0:116.88321 1:45.387908 
-0.5104169855366949 0:113.60474 1:41.388602 
-0.7832145784966249 0:95.960868 1:35.855699 
-1 0:84.947027 1:49.170256 
-1 0:106.79342 1:43.200738 
-1 0:120.51066 1:43.715221 
-1 0:158.80249 1:29.598181 
-0.6794359611506887 0:93.668859 1:44.138754 
-1 0:109.13482 1:40.678659 
-1 0:118.63938 1:53.154939 
-1 0:99.419536 1:43.583416 
-1 0:104.35004 1:44.004019 
-1 0:119.15781 1:51.453403 
-1 0:109.2488 1:52.870486 
-1 0:61.403216 1:39.390807 
-1 0:51.770864 1:31.680955 
-1 0:107.37798 1:47.431688 
-1 0:106.99307 1:52.213338 
-1 0:105.68084 1:53.167852 
-0.8202555444558207 0:82.992669 1:50.406393 
-1 0:90.334258 1:51.544497 
-1 0:95.6198 1:50.960985 
-1 0:89.386306 1:40.08918 
-1 0:116.16065 1:43.940004 
-0.9439903777919447 0:118.5252 1:49.858498 
-0.6152248811095861 0:101.95034 1:47.845855 
-1 0:106.25587 1:44.023555 
-1 0:105.38506 1:51.60036 
-1 0:102.77075 1:50.462509 
-0.2349423116940804 0:101.82659 1:48.831957 
-0.1887488008428768 0:101.21721 1:48.14089 
-1 0:100.62904 1:48.591081 
-1 0:97.939158 1:44.201536 
-1 0:91.640747 1:42.06276 
-0.9630612317445713 0:90.699692 1:41.43181 
-1 0:74.139579 1:35.190195 
-0.4788140907210169 0:118.23614 1:49.039891 
-1 0:99.984796 1:57.194401 
-1 0:100.87639 1:55.543381 
-0.7496753966724344 0:101.06526 1:54.785404 
-1 0:87.368303 1:46.291133 
-0.9997814261160307 0:82.436723 1:51.465625 
-1 0:73.337769 1:40.130534 
-1 0:80.227656 1:31.376606 
-1 0:77.299484 1:38.957934 
-0.7301218022758714 0:119.93413 1:40.162235 
-0.71060246028281 0:113.91296 1:41.596228 
-1 0:92.593151 1:36.798663 
-1 0:105.92692 1:46.046675 
-0.7567366769385077 0:120.72829 1:39.831189 
-1 0:87.944935 1:42.222548 
-1 0:60.674193 1:30.0776 
-0.4885304949447974 0:72.929106 1:40.104874 
-0.6382537553965638 0:77.979089 1:55.847669 
-0.6607264316724275 0:77.99737 1:55.453728 
-1 0:94.864501 1:41.686042 
-1 0:70.473932 1:37.012365 
-1 0:69.697491 1:35.530408 
-1 0:71.346549 1:35.790373 
-1 0:85.351428 1:31.58161 
-1 0:85.316853 1:34.645213 
-1 0:92.836944 1:25.814154 
-1 0:105.20862 1:42.802643 
-1 0:102.21843 1:36.044957 
-1 0:105.65039 1:39.002088 
-1 0:109.71473 1:34.537808 
-0.8525605973674797 0:117.42223 1:39.05227 
-0.8546401239945707 0:86.376493 1:34.068602 
-1 0:95.21885 1:27.269731 
-1 0:107.18664 1:21.840386 
-1 0:83.440647 1:26.083793 
-1 0:97.961688 1:35.094744 
-1 0:98.828902 1:46.43918 
-1 0:98.894041 1:65.244674 
-1 0:101.41993 1:63.750017 
-1 0:108.00842 1:59.766758 
-1 0:109.12097 1:59.336484 
-1 0:110.31072 1:56.186493 
-1 0:9.4323134 1:14.19954 
-1 0:144.18249 1:15.261141 
-1 0:59.279264 1:13.19915 
-1 0:56.468085 1:13.606681 
-1 0:89.608805 1:18.890196 
-1 0:89.105825 1:22.907408 
-0.4543368444759843 0:89.178326 1:18.295945 
-1 0:90.767319 1:25.606984 
-1 0:89.115508 1:35.285969 
-0.7491907003088873 0:96.356785 1:23.262416 
-1 0:76.949183 1:18.959541 
-1 0:29.839745 1:8.6677181 
-0.6651820550294519 0:70.124487 1:26.054461 
-0.6410802140262697 0:69.847657 1:25.984412 
-1 0:54.758368 1:24.025675 
-1 0:69.607768 1:28.752117 
-1 0:68.379208 1:31.145064 
-1 0:78.179355 1:32.187069 
-1 0:80.371621 1:30.882824 
-1 0:85.761046 1:30.045397 
-1 0:85.375539 1:32.382389 
-0.7168747371025911 0:86.706377 1:34.689903 
-1 0:87.763247 1:32.693418 
-1 0:91.726097 1:32.076088 
-1 0:82.821073 1:36.9065 
-1 0:77.891852 1:34.55018 
-1 0:73.121233 1:17.745448 
-1 0:56.635791 1:11.251426 
-1 0:24.885883 1:4.3527756 
-1 0:85.621804 1:32.89862 
-1 0:111.80424 1:35.511973 
-1 0:101.92545 1:35.920178 
-1 0:81.943453 1:29.767651 
-1 0:80.052758 1:34.99078 
-0.4589998556826105 0:78.871114 1:36.744352 
-1 0:106.48512 1:33.916664 
-1 0:107.92429 1:34.822492 
-1 0:85.542268 1:28.9961 
-1 0:99.824427 1:11.304031 
-1 0:48.891425 1:6.007589 
-1 0:64.655305 1:11.702967 
-1 0:101.30048 1:30.509465 
-0.7574366796268706 0:102.39692 1:49.370332 
-1 0:96.739668 1:27.508589 
-1 0:95.661023 1:26.856133 
-0.7675774593270344 0:98.058253 1:26.410658 
-1 0:92.996036 1:34.421745 
-0.7263705160574261 0:79.987658 1:30.976274 
-1 0:86.452845 1:30.60827 
-1 0:94.430005 1:34.308113 
-1 0:71.876686 1:25.348217 
-0.1503731979716023 0:83.724962 1:37.496498 
-1 0:6.5169412 1:2.1074284 
-1 0:113.72333 1:16.129246 
-1 0:70.021477 1:20.252846 
-1 0:84.532717 1:20.254116 
-0.551152074106149 0:96.832558 1:24.087698 
-1 0:108.09917 1:23.368387 
-1 0:39.205295 1:19.99826 
-1 0:38.690628 1:18.594421 
-1 0:34.234683 1:13.558296 
-1 0:33.763063 1:15.62645 
-0.5129272268558284 0:38.786635 1:16.740683 
-0.7234023545096565 0:37.169784 1:15.922183 
-0.1630452594348651 0:40.214769 1:17.427642 
-0.4228923402061843 0:34.923433 1:14.720117 
-0.6115175840023293 0:35.347397 1:14.869996 
-1 0:42.384148 1:17.15514 
-0.9795938155207373 0:39.085953 1:15.419826 
-0.8006384262072743 0:34.436782 1:15.438887 
-0.2590466382507874 0:35.689201 1:16.246999 
-1 0:32.412043 1:15.077072 
-0.3693843437534779 0:39.585119 1:16.191743 
-0.7955695342743719 0:40.552562 1:16.950952 
-0.5052684882120311 0:37.766561 1:16.99934 
-0.530841535839814 0:38.62701 1:18.052468 
-0.6367379234688577 0:35.217678 1:16.310862 
-0.393464704551717 0:36.453558 1:16.237416 
-0.3241150194519992 0:37.298536 1:16.840977 
-0.8045930808285559 0:39.657533 1:18.108067 
-1 0:121.58855 1:10.131267 
-1 0:91.798524 1:12.769028 
-1 0:126.49212 1:9.0945602 
-1 0:57.66328 1:9.5780056 
-0.8192754287096587 0:48.199198 1:4.0674327 
-1 0:104.83934 1:7.9074674 
-1 0:69.285713 1:23.937258 
-1 0:123.25306 1:47.397008 
-1 0:112.43423 1:38.78908 
-0.8540944604942844 0:110.25244 1:37.109612 
-0.7249858404369935 0:110.20604 1:37.821047 
-1 0:129.94995 1:38.422766 
-1 0:131.24884 1:47.270006 
-1 0:128.54622 1:40.926823 
-1 0:91.978929 1:50.921221 
-1 0:106.18245 1:60.984167 
-1 0:115.92172 1:46.190191 
-1 0:103.9722 1:82.336354 
-1 0:104.48179 1:62.299236 
-1 0:120.35874 1:41.005023 
-1 0:125.77144 1:43.62831 
-1 0:123.23498 1:41.568646 
-1 0:111.53189 1:37.28463 
-1 0:117.42077 1:38.193056 
-1 0:127.61729 1:62.197841 
-1 0:129.77255 1:57.794236 
-1 0:131.72762 1:62.092303 
-1 0:132.23533 1:53.635214 
-0.927751601084278 0:130.80931 1:46.226539 
-1 0:126.22457 1:56.79327 
-1 0:118.5398 1:24.643611 
-1 0:105.221 1:34.131661 
-1 0:123.71973 1:44.128831 
-1 0:123.09712 1:40.772714 
-1 0:121.88198 1:45.244711 
-0.6761568629598188 0:119.00137 1:48.146001 
-1 0:133.65473 1:41.901256 
-1 0:128.48135 1:46.35702 
-1 0:130.4309 1:44.590909 
-0.6951182369271672 0:109.77448 1:29.940874 
-1 0:112.4467 1:27.820937 
-1 0:124.15042 1:46.066765 
-0.5433306355943446 0:118.54163 1:48.020729 
-1 0:74.727911 1:18.357934 
-1 0:63.981076 1:16.844624 
-1 0:61.221846 1:17.889381 
-1 0:60.515735 1:19.066887 
-0.8274032094141595 0:42.302992 1:9.6924826 
-0.8313328366421888 0:41.721227 1:10.279653 
-1 0:48.054751 1:16.357517 
-1 0:63.604861 1:18.649398 
-1 0:68.580816 1:20.739225 
-1 0:62.036956 1:20.062714 
-1 0:121.09799 1:14.081545 
-1 0:113.16606 1:15.609646 
-0.0321556722404838 0:112.62946 1:14.806138 
-1 0:65.58074 1:31.736591 
-1 0:98.335112 1:9.5767144 
-1 0:102.55235 1:18.595051 
-1 0:101.55224 1:17.950497 
-1 0:82.672989 1:24.266742 
-1 0:138.33835 1:15.155947 
-1 0:127.07247 1:18.837106 
-1 0:157.47811 1:16.342165 
-1 0:101.04104 1:5.8442383 
-1 0:93.899829 1:15.197055 
-0.692362163225249 0:140.56521 1:31.010707 
-0.9287180243125451 0:134.278 1:21.991365 
-0.9232252168719784 0:148.40335 1:19.392901 
-1 0:139.90365 1:21.674668 
-1 0:138.14215 1:20.847485 
-1 0:52.462781 1:7.8054373 
-0.8231123708838234 0:47.457445 1:3.8250543 
-0.6411722303027562 0:119.9068 1:18.906617 
-1 0:125.96696 1:11.421364 
-1 0:201.24967 1:4.9332086 
-1 0:27.794694 1:12.917039 
-1 0:81.507395 1:8.3899848 
-1 0:148.88008 1:14.512169 
-1 0:78.246485 1:10.538737 
-1 0:54.863152 1:7.8377192 
-1 0:151.47547 1:10.767079 
-1 0:96.624729 1:25.156374 
-0.3232744057643001 0:96.229071 1:23.8466 
-1 0:159.34805 1:15.344945 
-1 0:159.52787 1:15.388755 
-1 0:72.314971 1:12.27292 
-1 0:70.407104 1:11.516337 
-0.6757796532493596 0:108.13338 1:22.600792 
-1 0:49.010174 1:10.797049 
-1 0:110.61561 1:10.884314 
-1 0:166.09607 1:21.479779 
-1 0:136.24832 1:20.170658 
-0.3823174452477537 0:134.01486 1:19.93312 
-1 0:50.740592 1:5.6120692 
-1 0:22.488659 1:8.7163954 
-1 0:137.671 1:19.17471 
-1 0:95.797767 1:17.502622 
-1 0:61.648209 1:14.159991 
-1 0:146.83584 1:13.499748 
-1 0:28.723913 1:25.358941 
-1 0:85.449565 1:12.906038 
-0.7550194555524659 0:114.20556 1:22.015176 
-1 0:127.95328 1:10.173567 
-1 0:143.36198 1:13.745459 
-1 0:43.4105 1:11.293789 
-0.8645031011961395 0:117.44901 1:17.066182 
-1 0:139.61256 1:13.934204 
-0.4894480240789608 0:128.17787 1:9.7493793 
-1 0:75.360637 1:24.665839 
-1 0:82.063158 1:27.313883 
-1 0:37.076182 1:10.609362 
-1 0:83.087319 1:19.567114 
-1 0:66.933801 1:17.783324 
-1 0:49.330537 1:15.716292 
-1 0:134.323 1:4.8656141 
-1 0:146.35962 1:10.056071 
-1 0:150.04661 1:9.4606131 
-1 0:76.135235 1:4.2345334 
-1 0:114.33809 1:13.854145 
-1 0:107.27779 1:16.483207 
-1 0:100.20521 1:15.820455 
-1 0:91.40815 1:14.561164 
-0.02612002159205525 0:156.32936 1:21.708808 
-1 0:160.38072 1:22.215339 
-0.9309954790984449 0:172.85925 1:21.968926 
-1 0:170.99234 1:22.836201 
-1 0:167.65533 1:23.090847 
-0.8693154627901848 0:143.57487 1:27.672602 
-0.6981631854425624 0:143.65615 1:28.565995 
-1 0:158.44823 1:25.257293 
-1 0:157.10025 1:25.426606 
-0.9263980176678802 0:138.32728 1:28.98053 
-1 0:112.90088 1:29.133319 
-1 0:149.53999 1:22.887918 
-1 0:101.08765 1:29.275701 
-1 0:108.91518 1:28.409934 
-1 0:121.08296 1:30.397535 
-0.001750110316102001 0:171.10188 1:22.381494 
-0.8556018845980712 0:141.4153 1:28.365777 
-0.9111981692057045 0:137.62159 1:28.283133 
-1 0:128.21902 1:26.249168 
-1 0:171.41856 1:21.427359 
-1 0:178.11086 1:23.328907 
-1 0:163.82143 1:25.064431 
-1 0:154.30463 1:25.625935 
-1 0:154.7133 1:25.575348 
-1 0:158.08883 1:26.222177 
-1 0:148.10917 1:23.623191 
-1 0:142.43742 1:24.080544 
-0.9855692325013288 0:137.56167 1:26.196785 
-1 0:156.43319 1:18.55934 
-1 0:192.64831 1:19.634427 
-1 0:144.38643 1:23.449586 
-0.4373252890257335 0:142.95259 1:22.908014 
-1 0:166.43855 1:30.998715 
-1 0:166.24575 1:28.610827 
-1 0:100.90595 1:19.77651 
-0.6963867164943992 0:114.0599 1:22.667963 
-0.5466809200642254 0:115.69842 1:22.830451 
-0.2787898123761355 0:115.39826 1:22.792531 
-1 0:118.40645 1:25.911057 
-1 0:119.2701 1:33.233091 
-1 0:123.88591 1:26.870938 
-1 0:169.1482 1:16.721653 
-1 0:186.57296 1:20.770985 
-0.8509002953613498 0:167.36486 1:21.969748 
-1 0:103.11969 1:21.591697 
-1 0:81.160774 1:19.783626 
-1 0:171.33404 1:15.667401 
-1 0:175.69406 1:16.112916 
-1 0:165.27102 1:18.965588 
-1 0:163.91016 1:19.363878 
-1 0:162.70887 1:20.571228 
-1 0:80.417861 1:10.50844 
-1 0:101.52246 1:22.304969 
-1 0:176.72341 1:12.142418 
-1 0:172.46599 1:14.342214 
-1 0:155.80374 1:17.579795 
-1 0:119.49455 1:22.924625 
-1 0:116.93264 1:19.210564 
-1 0:122.47587 1:22.137948 
-1 0:119.55887 1:19.562244 
-1 0:123.14418 1:19.356998 
-1 0:170.18312 1:12.577826 
-1 0:166.32994 1:12.435572 
-1 0:168.13191 1:12.246115 
-1 0:138.95245 1:17.761505 
-1 0:153.00463 1:16.379676 
-1 0:156.29178 1:13.699967 
-1 0:151.99988 1:15.829746 
-1 0:132.1789 1:21.59436 
-0.3300191109959668 0:172.37997 1:22.328619 
-1 0:129.85378 1:27.916199 
-0.06844925369913873 0:136.77541 1:25.785153 
-0.491041845002732 0:142.8833 1:22.654002 
-1 0:134.06231 1:19.964805 
-1 0:118.98542 1:13.763043 
-1 0:112.83572 1:18.896839 
-0.4741644435743991 0:117.23519 1:17.795104 
-0.9795640927810417 0:118.38292 1:18.509355 
-0.003027392817144203 0:119.16818 1:18.783363 
-1 0:159.11286 1:13.118427 
-1 0:161.15618 1:17.0862 
-1 0:166.08837 1:16.281266 
-1 0:100.52395 1:24.188274 
-1 0:105.32984 1:24.660298 
-1 0:115.82983 1:28.402477 
-1 0:114.30871 1:28.88839 
-1 0:110.51666 1:29.711562 
-1 0:98.493539 1:32.403767 
-0.9114132537264156 0:95.380043 1:35.412696 
-1 0:92.934053 1:23.112866 
-0.6054581108154947 0:99.818033 1:22.20886 
-1 0:87.993038 1:24.191937 
-1 0:74.722186 1:20.14101 
-1 0:166.8527 1:18.87798 
-0.9863138434542562 0:155.66782 1:21.528357 
-1 0:112.28419 1:14.612147 
-1 0:135.94484 1:13.035996 
-1 0:186.40443 1:9.6856174 
-0.937243424079155 0:108.34596 1:29.507872 
-1 0:114.03732 1:25.924621 
-0.6776208777164117 0:86.118563 1:25.857789 
-1 0:85.106301 1:25.553132 
-1 0:81.801954 1:17.864622 
-1 0:174.34218 1:15.419307 
-1 0:142.34295 1:22.89987 
-1 0:135.33338 1:20.681569 
-1 0:140.4468 1:23.356548 
-0.588446071985359 0:142.02763 1:28.418751 
-0.1406215440561181 0:145.00411 1:28.37841 
-1 0:177.78552 1:26.754064 
-1 0:179.12554 1:28.952895 
-0.7594272031879776 0:98.551998 1:26.644542 
-0.9842121442649066 0:103.99109 1:25.719077 
-1 0:180.6083 1:26.233679 
-1 0:116.38723 1:31.292857 
-1 0:108.71441 1:26.651961 
-1 0:107.7949 1:25.289961 
-1 0:94.611777 1:22.138308 
-0.8178306388268481 0:99.25762 1:22.174015 
-0.9222158971387101 0:94.667373 1:23.231577 
-0.8779938206958438 0:145.75857 1:20.771475 
-0.6680280687934856 0:162.78834 1:20.999747 
